-0.413999862031,-0.863492086843,-1.3641987115,-0.592695833028,-0.912963277436,-0.0633692517676,0.0998188666049,0.244292616106,-0.0192734037826,-0.417602784542,1.2778058796,0.273948004214,0.295837778858,-0.329823025179,1.99080316164,0.38696155137,-2.15586035475,0.260362087598,0.293107471944,-0.258700614035,0.865547898822,-1.03703336256,0.0785474337806,-0.704296777182,-1.25884971093,-1.81610392584,1.04334704772,-0.14900010375,-0.398319630738,0.496268049158,-1.2926986222,-0.964047679787,-1.25533403846,-2.25360218804,-0.728423159943,-0.549525265415,-1.49260407108,1.2460313983,0.190761848563,0.529049425404,-0.171369522603,-0.461563226431,-1.01158422965,-0.707128938626,0.259793237886,0.58099892693,0.659620055569,-1.11211283306,-0.817617249427,0.0462895731146,-1.58657390527,-1.09568090768,-0.932874050583,0.0271121145653,0.27408193861,-0.1565224043,-0.509699494245,-0.11564512146,-0.118757439754,-0.994335203124,1.54239576355,-0.473264410922,-1.42309532313,0.342208420808,0.164591147752,-0.550531371264,0.31509204018,2.24888689891,-0.00569174451408,-0.703238758761,-1.19539743944,0.14687634097,-0.431527573796,2.49927199838,0.120369211609,0.544671481356,1.72520370353,-0.471952016651,-0.856282723257,0.0854694676698,1.15877843962,-0.299662657665,-0.786573186399,-1.03877739789,-0.840244562026,-1.0304846914,-0.760675042068,0.335380111691,-1.48219776192,-1.27555703415,1.08526763841,-0.134027499698,0.873668553356,-1.11066297097,-1.28352383371,0.0639362671127,0.959198574818,-0.115163238786,-0.754565786507,-1.05488275532,-0.354894257815,0.716682761112,-0.172687958034,0.173220366166,1.99083135627,-0.209998122765,-1.62500584381,0.66935599412,-1.24479243719,0.521673229567,-0.0765552656951,-0.587400220953,-0.10876544551,0.239535633813,-0.937403958822,-1.22303906232,1.42648598722,-0.381914127815,0.973931669747,0.283206191713,1.23623490838,-1.54746886837,1.46977569545,-1.80411944431,1.60123499348,-1.7608247818,2.73344626892,0.542373238992,1.04295504353,0.172152179802,-0.222927226325,-0.488867579846,-1.94375680869,-1.78101604394,-0.325213742476,0.687955559701,-1.83120572952,0.696608938225,-1.1919487942,-1.39844008813,-1.85919831207,1.04143612568,1.04387862519,-0.672401795299,1.23932640723,0.803349285685,-0.689424548863,0.399386020086,0.368448618305,-1.50337994019,-0.131999082502,-0.579428012629,0.020011611886,1.81253460485,-0.363097714084,-0.758520168086,-0.0213984182696,-1.05700546549,0.255839414079,0.450373936597,-0.507185147313,1.04604665507,-0.887905225298,-1.34043731496,1.56915913063,-0.658869180798,-1.53711833838,0.397278888516,-0.172055843743,-0.641790717318,-1.67277085828,-1.19374700452,-1.3951578537,-0.0187178737635,1.4685581165,-0.534949074371,0.357121480609,-0.08952773895,-0.922003798333,-0.992468581514,-0.211218916024,-0.153036457218,-0.449293187659,1.44682869377,-0.345525841959,-0.806860417612,0.323631749864,-1.27918218221,0.478578883165,0.319921745692,-0.590842659783,-1.29255664704,-0.434846702748,0.929259927887,1.89936247558,-0.867026552024,-0.344658520985,-0.774426521293,1.63158260384,-1.21251119213,-0.455164455926,0.0783492452698,1.27922945609,1.29498874033,0.731757108274,1.91191416582,-0.312079366558,0.657064667746,0.77497952335,-1.99995672393,0.693993231662,0.405104710825,-0.249655012642,-0.0837554860543,0.154504672731,-2.25278514862,-1.20574723577,-0.0727090143004,0.635632466993,-0.375635599226,-0.196041997186,-0.272804363951,-0.138384508014,0.246948910831,-0.259849232941,1.8364570385,-1.94564076617,-0.707903107294,-1.00333133398,-1.28735210476,0.0233650525107,1.20186886559,-0.603153014422,-0.947025128144,0.147276820153,-1.14292255872,0.229791430867,-2.04328007513,-1.01283674169,-1.05965193409,0.32589351495,0.440099686798,0.668908291838,-0.297301110239,1.7339150382,0.614540306858,-2.15168717241,0.228438778169,0.404338625022,-1.94064697476,-0.85674828502,-0.276082274516,-0.37866810476,0.266108767414,-1.54448922284,0.299198380875,-0.398861836041,0.448893129469,1.45939535347,0.903915702346,-0.218850453125,-1.74939922843,-1.62376052832,1.25604364762,-0.854941351728,0.357017758537,-0.542144749997,-0.630038214471,-0.327364452242,0.0392931646177,0.350907423315,1.38883700543,0.952935092563,-0.558644417922,-1.30438313774,1.68658382595,0.766709587849,0.224805136521,-0.340416136333,0.120413999568,-0.802749655869,0.399039791074,-1.58280310164,-0.664970201509,1.02801476892,-0.144460451879,0.236416382316,-1.15947353133,-0.176041168072,1.57744508909,0.784571189655,-0.352360529914,-2.28066538765,0.740880524095,-0.528921325318,0.427954947507,0.0565332295197,-2.01731653801,-0.373930264216,-2.09894506146,0.518590038232,-0.289026234558,-0.339244955058,-0.0254806750701,0.0271452366094,0.124410752392,0.607452683107,1.28939121253,-0.264919058122,1.08061443181,-0.427214484151,0.575577802804,-0.391817628154,1.18090144394,0.537859158559,0.627752034358,-1.0678161563,0.726582937294,0.25815670703,-1.75586414751,0.262104664293,1.95660883431,-0.973989384574,0.0922958138802,-1.03318536862,-0.242710834709,1.82671051046,1.28134313814,-0.397931206859,0.947101095585,0.154943961916,-1.70590138983,0.136562841677,-2.73706815178,-0.16740764379,1.24518289655,0.179778867429,-0.438846758393,0.995760255501,0.103859832753,-0.271113298117,-0.358310715444,-0.0180961308778,-0.101769415225,-0.04077311508,0.681800539021,-1.88149442946,0.998646112829,0.238982694646,1.95600961539,-0.50593247,0.388208866444,-1.55865556398,2.4536045216,-0.913319935848,-0.128678450739,0.756832548538,-1.40110114941,-0.381543041908,-0.30671192978,-0.583420547258,-1.55543042803,-0.52121804415,-0.770378655796,0.0166541846911,2.49356870955,-1.40475683959,-0.412474488605,-1.56272113505,-0.635528408728,0.192853409027,0.870397045167,0.546088772702,-0.62979582608,-1.98078148237,0.151461062733,0.407935972321,-0.54685617897,-1.33240397477,-1.02137617751,-2.33100139018,2.03286188267,-0.515739033221,-0.407239013457,-1.24953174764,-1.29580741498,-1.52197706079,1.17528020293,-2.08313716964,0.832916298944,1.40926551899,0.0879801369198,-0.58268911883,-1.11027745332,0.210007863466,-0.0458938610268,1.60368099366,-0.663762804684,-0.134621641531,0.868796015463,0.362372611692,0.101296883672,0.643947868193,1.08196870303,0.234271526025,0.0474630217008,0.193342446858,-2.08058490582,-0.518146424493,0.758569011606,0.138989649514,-1.33129256911,0.411082411662,-1.27711790851,0.587952580636,-1.68931484212,-0.399566327289,-0.162637012407,0.277625468411,0.312490502121,-0.364796104772,1.03535552842,-0.497352846346,-0.154966442681,-0.0554456950218,1.12927272957,-0.585964623213,-1.67432518555,-0.508017973348,1.00088914166,-0.180292186169,0.306476822623,-0.390528826312,-0.0530966782149,-1.21877739653,-2.65955961098,-0.0053531191294,0.942778041994,0.599322371475,0.645867086797,-0.910710731616,1.06145630143,-2.56364914193,-0.0646313200041,-3.72946018423,-0.746792656433,-0.62318912216,-0.0977536315754,-0.103952689172,-1.50116115472,-1.16656703745,1.32713540977,-0.132586889431,0.390325465536,-0.0412911539126,0.00616284518089,0.187219968065,0.369314723905,1.22525307809,0.237508703592,0.0933920093577,0.307255585687,-0.776862939301,-0.699652615457,0.0681493936317,0.178339977823,0.0111834063453,0.780504596111,0.617577683054,-0.281483044167,-0.410155234818,2.20824914885,-1.55263250992,1.19484188121,0.757997074872,1.2181950172,-0.780602999656,-0.413758656101,-0.088471142933,-1.18730948343,0.828242716788,1.14810207214,1.48750936415,0.29256593897,0.156391115448,-0.906339404288,-1.32374954209,1.09179136748,-0.440306208974,-0.312272247312,-0.834768241233,-1.09273965494,0.455439963603,0.237375532608,-2.17459029256,0.920557619922,-0.431576959088,-0.262422775767,-2.50102751941,2.41935892401
